//TODO : export the intersection rects

//ManTracking.cpp : Defines the entry point for the console application.
//
#include "stdafx.h"
#include "opencv2/opencv.hpp"
#include "opencv2/highgui/highgui.hpp"
#include <iostream>
#include "opencv2/videoio/videoio.hpp"
#include <opencv2/imgproc/imgproc_c.h>
#include <opencv2/features2d/features2d.hpp>
#include "ml.h"
#include <vector>
#include <string>
#include <sstream>
#include <fstream>
#include "tracking\tracking.hpp"



using namespace cv;
using namespace std;
VideoCapture cap("C:/Users/SAL/Videos/TownCentreXVID.avi");
int a = 0;
int IntersectionCount = 0;
const int Rows = 71459;
const int Cols = 12;
const int PersonNumber = 0, FrameNumberG = 1, HeadValid = 2, BodyValid = 3, HeadLeft = 4,
HeadTop = 5, HeadRight = 6, HeadBottom = 7, BodyLeft = 8, BodyTop = 9, BodyRight = 10, BodyBottom = 11;

int TotalFrame = cap.get(CV_CAP_PROP_FRAME_COUNT);
int sliderPosition = 0;
int run = 1, dontSet = 0;

class RectFrame{
public:
	Rect Rectangle[71460];
	int FrameNumber[4500];
};

void trackbarSlide(int pos, void *){
	cap.set(CAP_PROP_POS_FRAMES, pos);
	if (!dontSet){
		run = 1;
	}
	dontSet = 0;
}

RectFrame GroundTruthClass;
RectFrame HogClass;
RectFrame IntersectionRect;
Mat frame;
Mat FrameCanny;
Mat FrameHSV;
Mat FrameHog;

int CurrentFrame = 0;


vector<double> RowVector(Cols, 99);
vector<vector<double> > DataVector(Rows, RowVector);

vector<double> PersonRowVector(11, 99);

vector<vector<double> > Person0Vector(Rows, PersonRowVector);
vector<Rect> Found, FoundFiltered, GroundTruth, HogRects;
vector<int> HogFrameCount, GroundTruthFrameCount;
int RowNumber = 0;


ifstream file("C:\\opencv\\groundtruth.txt");
string CSVLine;
string value;
double DoubleValue;
int Person0 = 0;
int Person1 = 1;
int n = 0;
int NoOfGroundTruthRects = 0;
int GTRow = 0;
ofstream IntersectionFile("Intersection_Rect.xls");

int main(int argc, char* argv[])
{
	
	//namedWindow("video", WINDOW_AUTOSIZE);

	int frames = (int)cap.get(CAP_PROP_FRAME_COUNT);
	int width = (int)cap.get(CAP_PROP_FRAME_WIDTH);
	int height = (int)cap.get(CAP_PROP_FRAME_HEIGHT);

	//createTrackbar("Position", "video", &sliderPosition, frames, trackbarSlide);
	HOGDescriptor hog;
	hog.setSVMDetector(HOGDescriptor::getDefaultPeopleDetector());
	cout << "reading ground truth CSV" << endl;

	
	///////////////////ground truth read csv to DataVector////////////////////////
	for (int row = 0; row < Rows; ++row){
		//gets the csv line by line and stores as a string
		getline(file, CSVLine);
		NoOfGroundTruthRects++;
		//converts the line into stringstream - whatever that means
		istringstream iss(CSVLine);

		for (int col = 0; col < Cols; ++col){
			//gets each value from the line seperated by a comma
			getline(iss, value, ',');
			//converts each value from string to double
			DoubleValue = stod(value);
			//assigns each value to appropriate array position
			DataVector[row][col] = DoubleValue;
			//prints array
			//cout << DataVector[row][col] << " ";
		}


	}
	/////convert ground truth data vector to rectframe class
	/*
	cout << "turning ground truth data to rectangle class" << endl;
	for (int row1 = 0; row1 < Rows; ++row1){

		GroundTruthClass.FrameNumber[row1] = DataVector[row1][FrameNumberG];
		GroundTruthClass.Rectangle[row1] = Rect(Point(DataVector[row1][BodyLeft], DataVector[row1][BodyTop]), Point(DataVector[row1][BodyRight], DataVector[row1][BodyBottom]));
		//cout << GroundTruthClass.FrameNumber[row1] << " " << GroundTruthClass.Rectangle[row1]<<endl;
	}

	*/
	cout << "finished" << endl;

	/*
	///////save GRound truth rects to csv//////
	ofstream GTFile("Ground_Truth.xls");

	for (int row1 = 0; row1 < Rows; ++row1){
	GroundTruth.push_back(Rect(Point(DataVector[row1][BodyLeft], DataVector[row1][BodyTop]), Point(DataVector[row1][BodyRight], DataVector[row1][BodyBottom])));

	GTFile << GroundTruth[row1]<<"\t"<<DataVector[row1][FrameNumberG] << endl;
	}
	GTFile.close();
	cout << "finished reading CSV" << endl;
	*/

	//////////////video cap///////////////////////////////

	while (CurrentFrame != 4500){
		if (run != 0){

			cap >> FrameHog;
			if (FrameHog.empty()) break;
			CurrentFrame = cap.get(CV_CAP_PROP_POS_FRAMES);
			int currentPos = (int)cap.get(CAP_PROP_POS_FRAMES);
			dontSet = 1;
			setTrackbarPos("Position", "video", currentPos);
			run = 1;
			cout << "current frame: " << CurrentFrame << "\r";

			//get hog rectangles and put them into the found vector
			hog.detectMultiScale(FrameHog, Found, 0, Size(8, 8), Size(32, 32), 1.05, 2);

			//gets all hog rectangles and pastes them onto FrameHog
			/*for (size_t i = 0; i < Found.size(); i++){
			rectangle(FrameHog, Found[i], 10, 1, 8, 0);
			}*/

			//gets all the hog rectangles into RectFrame class
			for (size_t i = 0; i < Found.size(); ++i){

				HogClass.FrameNumber[i] = CurrentFrame;
				HogClass.Rectangle[i] = Found[i];

			}


			//
			vector<int> IntersectionArea;
			int NumberOfGTRects = 0;
			//puts all ground ttruth rects from current frame into RectFrame class
			while (DataVector[GTRow][FrameNumberG] == CurrentFrame - 1){
				GroundTruthClass.Rectangle[NumberOfGTRects] = Rect(Point(DataVector[GTRow][BodyLeft], DataVector[GTRow][BodyTop]), Point(DataVector[GTRow][BodyRight], DataVector[GTRow][BodyBottom]));
				GroundTruthClass.FrameNumber[NumberOfGTRects] = DataVector[GTRow][FrameNumberG] + 1;
				++GTRow;
				++NumberOfGTRects;
			}


			
		

			////comparing GT and hog rects from current frame
			for (int j = 0; j < NumberOfGTRects; ++j){

				
				for (size_t i = 0; i < Found.size(); ++i){
					IntersectionRect.Rectangle[i] = HogClass.Rectangle[i] & GroundTruthClass.Rectangle[j];
					IntersectionRect.FrameNumber[i] = CurrentFrame;
				
					

					if (IntersectionRect.Rectangle[i].area() != 0){
						rectangle(FrameHog, IntersectionRect.Rectangle[i], Scalar(0, 255, 0), 3);
						//IntersectionArea.push_back(IntersectionRect.Rectangle[i].area());
						IntersectionFile << IntersectionRect.Rectangle[i].area() << "\t" << IntersectionRect.FrameNumber[i] << endl;
						IntersectionCount = IntersectionCount + 1;
					}
				}


			}
			for (int j = 0; j < NumberOfGTRects; ++j){
				rectangle(FrameHog, GroundTruthClass.Rectangle[j], Scalar(0, 0, 255), 1);
			}
			for (size_t i = 0; i < Found.size(); ++i){
				rectangle(FrameHog, HogClass.Rectangle[i], Scalar(0, 255, 0), 2);
			}
			
			

			//resize(FrameHog, FrameHog, Size(), 0.5, 0.5);

			//imshow("video", FrameHog);
		}
		/*
		char c = (char)waitKey(10);
		if (c == 's'){
			run = 1; cout << "single step, run = " << run << endl;
		}
		if (c == 'r'){
			run = -1; cout << "Run mode, run = " << run << endl;
		}
		if (c == 27) break;
		*/
		//waitKey(30);
		//if (waitKey(10) >= 0)
		//break;
		

		////save to file
		/*
		cout << "	current frame: " << CurrentFrame << "\r";
		ofstream HogFile("Hog_Rect.xls");
		for (size_t i = 0; i < HogRects.size(); ++i){
			HogFile << HogRects[i] << "\t" << HogFrameCount[i] << endl;
		} 
		*/
	}

	return 0;
}

